{"format":"piano-note-softmax-v1","labels":["C4","D4","E4","F4","G4","A4","B4","C5"],"midi":[60,62,64,65,67,69,71,72],"sampleRate":12000,"frameSize":512,"hopSize":128,"analysisWindowMs":42.666666666666664,"silenceRms":0.014,"trainingSource":"cmajor.m4a","trainingSamples":576,"featureSize":32,"featureMean":[0.3864129037091612,0.4962795808945373,0.6199545836873891,0.5702352572489322,0.36841560835488085,0.32687036998713226,0.5340828783114491,0.634319698005562,0.634319698005562,0.17921112244393855,0.10185051742486098,0.1288040949554258,0.15626475413535432,0.11338730411080822,0.13643032307257363,0.1659229239518957,0.15640923081944688,0.1134087629494934,0.13703605913498768,0.16591524503838576,0.08609816728116959,0.13517696356091233,0.10351427621377435,0.12522481233501098,0.17094286493076377,0.10528588703651207,0.06493591615233124,0.09798170443560579,0.20970835984863398,0.25297955255019045,0.1446706752745033,0.037171906548077505],"featureStd":[0.590237234370595,0.6576502907524538,0.758893687663333,0.7726389790275272,0.6515109838999364,0.6568642425594813,0.693543739742664,0.7728866380082838,0.7728866380082838,0.31949643198664307,0.21106677706953744,0.2647585343852144,0.2642224571927459,0.23595825808244472,0.2574202899888958,0.25441699977901633,0.26441615787481587,0.23584504643215468,0.25775705243484626,0.2546378182297854,0.18390057313122454,0.215346009144916,0.19892313140163573,0.2098383247830771,0.6859340735955097,0.609173992255113,0.721618159849628,0.7129615444887591,0.5198481568003702,0.4987019626238553,0.6661842037169692,0.7033385853150605],"weights":[[0.9843650355439091,0.15070953527065728,-0.18926490382096936,-0.18032801881669513,-0.20042899852587742,-0.1400872925803388,0.09947529417426694,0.4079955239316553,0.4079955239316553,-0.32049884775845844,-0.10641626399879162,-0.11826585562399293,0.8245210615510905,-0.1444234868138059,-0.18250357857768398,0.008086923115027076,0.8265401460303659,-0.14484195830047827,-0.18294902534913088,0.008836915593043565,-0.15456027511260945,0.2662293103259223,-0.25509611076801086,-0.18903899082414577,0.36321491844234643,0.1662246904695083,-0.16888260129267693,-0.26854668443604607,-0.4112396692138824,-0.26781920646719914,-0.05966010319411051,0.0012441597725668288],[0.19247192161730065,0.6528599917330338,-0.0770600652467663,-0.24885961200431866,-0.10247874026295174,-0.07726277861862954,-0.11587879156025004,-0.08794513731071914,-0.08794513731071914,0.8374692071934808,-0.20251943903850286,-0.12351301888673703,-0.14665708994872437,0.28544100736568334,-0.10320599513251406,-0.16313234426072354,-0.14692269156284454,0.2860699821433204,-0.10411346129690809,-0.16311370514853388,0.2514513944110382,-0.1814963869985056,0.1952892202359988,-0.08441277739050844,0.16963146105018348,0.3034563904932383,0.1589377385341188,0.07080960685706401,-0.14985616118501033,-0.31562360533454265,-0.25298256541046105,-0.22022733958297094],[-0.22048240428670382,0.11173580642343792,0.6497977477594585,0.31331012806840003,-0.1668370859672201,-0.1162190792235981,-0.1487820531795284,-0.1531219052475643,-0.1531219052475643,-0.2310446625744267,0.9362032025509163,-0.6424598143956505,-0.15813180347659925,-0.1372264112010938,0.32272012876637063,-0.2799091677166995,-0.15812150571950906,-0.13756971280082408,0.323804324935697,-0.2802302354955167,-0.13591535185568432,0.23579628385812235,-0.1466828411890582,-0.10093245513168386,0.03547348690124971,0.3325167202859841,0.3140449555028643,0.2491683483211889,0.0758535662383094,-0.17684682502814655,-0.24380761361099226,-0.24993599319577353],[-0.08229538916644051,-0.27196920880191827,0.20471855008356854,0.5679614682693707,-0.19160470034058463,-0.11370907076511307,-0.10143571374053643,-0.12933540577952596,-0.12933540577952596,-0.15996757720922478,-0.33441189899569096,1.241976589639455,-0.19934442063404217,-0.0730434944686833,-0.19400711990310654,0.3616584768934934,-0.20010963864214545,-0.07296120448792183,-0.19443997825574627,0.36236047258199555,-0.10951350357074181,-0.2271443141063479,-0.05807751619655444,-0.14789789317886884,-0.2601226814681235,0.014439116492024336,0.21845231353152417,0.25578617506332346,0.231421069842121,0.04414654010070778,-0.07548115202360174,-0.0985707563777885],[-0.09115215951037277,-0.13701492680070115,-0.13591643589012772,-0.034229534638797,0.8501331189189287,-0.2829326287407891,-0.1351901689052076,-0.16056969963608084,-0.16056969963608084,-0.036215760906119394,-0.11902751731823832,-0.12570305639897278,0.5767732224365162,-0.11391237589624777,-0.09098496348792036,-0.12293513075152765,0.5773523633386709,-0.11434781079670649,-0.09143416985946802,-0.12331649063272444,0.30994839707868205,-0.239615349789232,-0.07808197147602407,0.30946631139735403,-0.42742187493530903,-0.23053319733448482,0.10069061326142052,0.19522243065542338,0.33153576978119575,0.19621718874431124,0.023370684508787147,-0.02065704183327554],[-0.09051034852771024,-0.12116875694481744,-0.18970956635664038,-0.21173341016230732,-0.044939041930989194,0.8985522044782912,-0.20912243851809367,-0.22122389513259746,-0.22122389513259746,-0.05978862182461486,-0.07136315928754945,-0.110158318442295,-0.18866405547635948,0.29270433950034436,-0.1549371760143784,-0.12585886056011233,-0.18870304599857315,0.29303003877059974,-0.1555183835259471,-0.12586444018835796,-0.09632890561388419,0.49878732729805614,-0.19712307374063232,-0.19325347853113023,-0.21025336548473467,-0.48534890150661064,-0.21364431764331068,-0.06894935009985372,0.21956647026272552,0.3530186332605882,0.20166230483584774,0.1449782382892532],[-0.10167251935901074,-0.08717196637381824,-0.1154423442205139,-0.09742618952467359,-0.07535085052161755,-0.05924256957483522,0.6322026668478347,-0.020105139649400302,-0.020105139649400302,-0.04201602786764743,-0.06383078284781095,-0.04497063187470205,-0.14114114626928423,-0.06673260077612807,0.6078793109350495,-0.1928766819619498,-0.14145896255181045,-0.0667227405792708,0.6105060907756107,-0.1934139896445538,-0.043267845374700374,-0.13687143575293978,0.8297099814416714,-0.3179528452775737,0.09873722612478623,-0.22263601664123772,-0.24036674637049096,-0.18269000787130968,-0.019903793891666778,0.167647368616243,0.19533870723560093,0.17691473742111455],[-0.590724136310972,-0.29798047450587484,-0.14712298230801013,-0.10869483119097803,-0.06849370136968544,-0.10909878497498764,-0.021268795118483723,0.36430565882423116,0.36430565882423116,0.012062290947011316,-0.038634141064333063,-0.07690589401710773,-0.567355768182598,-0.04280697771006711,-0.20496060658581725,0.514966785242494,-0.5685766648941514,-0.04265659394871838,-0.20585539742410944,0.5147414729346447,-0.021813909962100697,-0.2156854348350766,-0.2899376883073897,0.7240221289365573,0.23074082936960202,0.1218811977415786,-0.16923195552344714,-0.2508005184897897,-0.2773772518337919,-0.0007400938919609924,0.2115597376589302,0.2662539955068742]],"bias":[0.09701862545625062,-0.028370076026123233,0.027814180786510337,-0.016263911813736334,0.008983086460204836,0.01609225580853629,-0.032308339209566585,-0.07296582146207617]}